Language model created by QuickLM on Mon Jun 27 22:04:57 EDT 2016
Copyright (c) 1996-2010 Carnegie Mellon University and Alexander I. Rudnicky

The model is in standard ARPA format, designed by Doug Paul while he was at MITRE.

The code that was used to produce this language model is available in Open Source.
Please visit http://www.speech.cs.cmu.edu/tools/ for more information

The (fixed) discount mass is 0.5. The backoffs are computed using the ratio method.
This model based on a corpus of 14 sentences and 16 words

\data\
ngram 1=16
ngram 2=28
ngram 3=14

\1-grams:
-0.7782 </s> -0.3010
-0.7782 <s> -0.2218
-1.9243 CLOSE-HAND -0.2218
-1.9243 CREATE-NEW-ACTION -0.2218
-1.9243 DELETE-ALL-STEPS -0.2218
-1.9243 DELETE-LAST-STEP -0.2218
-1.9243 EXECUTE-ACTION -0.2218
-1.9243 NEXT-ACTION -0.2218
-1.9243 OPEN-HAND -0.2218
-1.9243 PREVIOUS-ACTION -0.2218
-1.9243 RECORD-OBJECT-POSE -0.2218
-1.9243 SAVE-POSE -0.2218
-1.9243 START-RECORDING-MOTION -0.2218
-1.9243 STOP-EXECUTION -0.2218
-1.9243 STOP-RECORDING-MOTION -0.2218
-1.9243 TEST-MICROPHONE -0.2218

\2-grams:
-1.4472 <s> CLOSE-HAND 0.0000
-1.4472 <s> CREATE-NEW-ACTION 0.0000
-1.4472 <s> DELETE-ALL-STEPS 0.0000
-1.4472 <s> DELETE-LAST-STEP 0.0000
-1.4472 <s> EXECUTE-ACTION 0.0000
-1.4472 <s> NEXT-ACTION 0.0000
-1.4472 <s> OPEN-HAND 0.0000
-1.4472 <s> PREVIOUS-ACTION 0.0000
-1.4472 <s> RECORD-OBJECT-POSE 0.0000
-1.4472 <s> SAVE-POSE 0.0000
-1.4472 <s> START-RECORDING-MOTION 0.0000
-1.4472 <s> STOP-EXECUTION 0.0000
-1.4472 <s> STOP-RECORDING-MOTION 0.0000
-1.4472 <s> TEST-MICROPHONE 0.0000
-0.3010 CLOSE-HAND </s> -0.3010
-0.3010 CREATE-NEW-ACTION </s> -0.3010
-0.3010 DELETE-ALL-STEPS </s> -0.3010
-0.3010 DELETE-LAST-STEP </s> -0.3010
-0.3010 EXECUTE-ACTION </s> -0.3010
-0.3010 NEXT-ACTION </s> -0.3010
-0.3010 OPEN-HAND </s> -0.3010
-0.3010 PREVIOUS-ACTION </s> -0.3010
-0.3010 RECORD-OBJECT-POSE </s> -0.3010
-0.3010 SAVE-POSE </s> -0.3010
-0.3010 START-RECORDING-MOTION </s> -0.3010
-0.3010 STOP-EXECUTION </s> -0.3010
-0.3010 STOP-RECORDING-MOTION </s> -0.3010
-0.3010 TEST-MICROPHONE </s> -0.3010

\3-grams:
-0.3010 <s> CLOSE-HAND </s>
-0.3010 <s> CREATE-NEW-ACTION </s>
-0.3010 <s> DELETE-ALL-STEPS </s>
-0.3010 <s> DELETE-LAST-STEP </s>
-0.3010 <s> EXECUTE-ACTION </s>
-0.3010 <s> NEXT-ACTION </s>
-0.3010 <s> OPEN-HAND </s>
-0.3010 <s> PREVIOUS-ACTION </s>
-0.3010 <s> RECORD-OBJECT-POSE </s>
-0.3010 <s> SAVE-POSE </s>
-0.3010 <s> START-RECORDING-MOTION </s>
-0.3010 <s> STOP-EXECUTION </s>
-0.3010 <s> STOP-RECORDING-MOTION </s>
-0.3010 <s> TEST-MICROPHONE </s>

\end\
